digraph Tree {
node [shape=box, style="rounded", color="black", fontname=helvetica] ;
edge [fontname=helvetica] ;
0 [label="X[0] <= -0.1\nmse = 0.0\nsamples = 104\nvalue = 0.1"] ;
1 [label="X[7] <= -1.2\nmse = 0.0\nsamples = 49\nvalue = 0.1"] ;
0 -> 1 [labeldistance=2.5, labelangle=45, headlabel="True"] ;
2 [label="X[4] <= -0.9\nmse = 0.0\nsamples = 3\nvalue = 0.3"] ;
1 -> 2 ;
3 [label="mse = 0.0\nsamples = 2\nvalue = 0.3"] ;
2 -> 3 ;
4 [label="mse = 0.0\nsamples = 1\nvalue = 0.4"] ;
2 -> 4 ;
5 [label="X[3] <= -0.4\nmse = 0.0\nsamples = 46\nvalue = 0.1"] ;
1 -> 5 ;
6 [label="mse = 0.0\nsamples = 31\nvalue = 0.1"] ;
5 -> 6 ;
7 [label="mse = 0.0\nsamples = 15\nvalue = 0.1"] ;
5 -> 7 ;
8 [label="X[4] <= -0.6\nmse = 0.0\nsamples = 55\nvalue = 0.0"] ;
0 -> 8 [labeldistance=2.5, labelangle=-45, headlabel="False"] ;
9 [label="X[3] <= 0.5\nmse = 0.0\nsamples = 21\nvalue = -0.1"] ;
8 -> 9 ;
10 [label="mse = 0.0\nsamples = 7\nvalue = -0.2"] ;
9 -> 10 ;
11 [label="mse = 0.0\nsamples = 14\nvalue = 0.0"] ;
9 -> 11 ;
12 [label="X[0] <= 1.6\nmse = 0.0\nsamples = 34\nvalue = 0.1"] ;
8 -> 12 ;
13 [label="mse = 0.0\nsamples = 29\nvalue = 0.1"] ;
12 -> 13 ;
14 [label="mse = 0.0\nsamples = 5\nvalue = -0.0"] ;
12 -> 14 ;
}